{"hiddenLayers":[{"neurons":[{"weights":[1.2477913025452443],"bias":-0.5140793143227286,"output":729.5323341247309},{"weights":[-0.9303811177867926],"bias":0.24507559174129545,"output":-542.1231901577385},{"weights":[-0.11112693939464004],"bias":1.6085380379748906,"output":-44.040183908349654},{"weights":[-2.558731398392547],"bias":2.6100831941000546,"output":-1471.2130639256168},{"weights":[2.6669466587083615],"bias":3.6018850195889622,"output":1613.387255555584},{"weights":[1.0833182243377952],"bias":-0.2027813342200838,"output":636.5577398999826},{"weights":[-2.3000481764308502],"bias":-2.9233531040429224,"output":-1385.5085649898551},{"weights":[0.5057066044236894],"bias":-3.131114002826513,"output":261.7821153672112},{"weights":[-2.0154862705403516],"bias":1.9803220174724148,"output":-1159.3420628680578},{"weights":[1.916684084437026],"bias":3.800681250284813,"output":1174.618416652389},{"weights":[1.1573537546187234],"bias":0.6162732375728706,"output":689.9192865666837},{"weights":[0.9035736030599242],"bias":-3.18368261148808,"output":495.0970872613784},{"weights":[2.0102580159880983],"bias":3.763202483388584,"output":1229.1901432016648},{"weights":[0.821536695497374],"bias":3.9040963479234048,"output":531.9127331275367},{"weights":[-0.7177539580385487],"bias":-1.5596105299912297,"output":-438.7546536865615}],"size":15,"previousLayersSize":1,"outputs":[729.5323341247309,-542.1231901577385,-44.040183908349654,-1471.2130639256168,1613.387255555584,636.5577398999826,-1385.5085649898551,261.7821153672112,-1159.3420628680578,1174.618416652389,689.9192865666837,495.0970872613784,1229.1901432016648,531.9127331275367,-438.7546536865615]},{"neurons":[{"weights":[-3.1029314223963356,3.933768064197228,-3.108535766357229,-0.7187044008682792,-3.4423149266981286,-1.000267722049713,-1.0339654187226497,1.8190623907927301,-0.7685714167031336,1.6189654533773161,1.462049550715545,0.6864362915602985,0.6998862942085599,2.5595426895887026,-2.5626107436716343],"bias":-3.2052241775774517,"output":6.7315282318667435}],"size":1,"previousLayersSize":15,"outputs":[6.7315282318667435]}],"inputLayer":[49.0],"output":[6.7315282318667435],"mse":0.28592941471505334}